<?xml version="1.0"?>
<opencv_storage>
<cascade>
  <stageType>BOOST</stageType>
  <featureType>HAAR</featureType>
  <height>32</height>
  <width>32</width>
  <stageParams>
    <boostType>GAB</boostType>
    <minHitRate>9.9500000476837158e-01</minHitRate>
    <maxFalseAlarm>5.0000000000000000e-01</maxFalseAlarm>
    <weightTrimRate>9.4999998807907104e-01</weightTrimRate>
    <maxDepth>1</maxDepth>
    <maxWeakCount>100</maxWeakCount></stageParams>
  <featureParams>
    <maxCatCount>0</maxCatCount>
    <featSize>1</featSize>
    <mode>BASIC</mode></featureParams>
  <stageNum>8</stageNum>
  <stages>
    <!-- stage 0 -->
    <_>
      <maxWeakCount>3</maxWeakCount>
      <stageThreshold>-1.5401775836944580e+00</stageThreshold>
      <weakClassifiers>
        <_>
          <internalNodes>
            0 -1 3 -8.1846415996551514e-02</internalNodes>
          <leafValues>
            1. -9.6905767917633057e-01</leafValues></_>
        <_>
          <internalNodes>
            0 -1 13 -5.7712960988283157e-03</internalNodes>
          <leafValues>
            5.1889687776565552e-01 -8.8593024015426636e-01</leafValues></_>
        <_>
          <internalNodes>
            0 -1 21 -3.8990946486592293e-03</internalNodes>
          <leafValues>
            3.1481036543846130e-01 -8.8449400663375854e-01</leafValues></_></weakClassifiers></_>
    <!-- stage 1 -->
    <_>
      <maxWeakCount>3</maxWeakCount>
      <stageThreshold>-1.7518010139465332e+00</stageThreshold>
      <weakClassifiers>
        <_>
          <internalNodes>
            0 -1 4 -9.2308901250362396e-02</internalNodes>
          <leafValues>
            6.0000002384185791e-01 -9.6624469757080078e-01</leafValues></_>
        <_>
          <internalNodes>
            0 -1 6 -8.7667806074023247e-03</internalNodes>
          <leafValues>
            -9.2213220894336700e-02 -9.1917705535888672e-01</leafValues></_>
        <_>
          <internalNodes>
            0 -1 1 -6.5307272598147392e-04</internalNodes>
          <leafValues>
            1.3362081348896027e-01 -9.3683004379272461e-01</leafValues></_></weakClassifiers></_>
    <!-- stage 2 -->
    <_>
      <maxWeakCount>4</maxWeakCount>
      <stageThreshold>-2.2654769420623779e+00</stageThreshold>
      <weakClassifiers>
        <_>
          <internalNodes>
            0 -1 11 7.5928466394543648e-03</internalNodes>
          <leafValues>
            -9.6353435516357422e-01 1.</leafValues></_>
        <_>
          <internalNodes>
            0 -1 8 -1.6508647799491882e-01</internalNodes>
          <leafValues>
            6.2216675281524658e-01 -8.5285651683807373e-01</leafValues></_>
        <_>
          <internalNodes>
            0 -1 5 4.0426891297101974e-02</internalNodes>
          <leafValues>
            -7.5228655338287354e-01 4.5654609799385071e-01</leafValues></_>
        <_>
          <internalNodes>
            0 -1 12 -5.5777508532628417e-04</internalNodes>
          <leafValues>
            3.0320048332214355e-01 -1.</leafValues></_></weakClassifiers></_>
    <!-- stage 3 -->
    <_>
      <maxWeakCount>4</maxWeakCount>
      <stageThreshold>-1.8420169353485107e+00</stageThreshold>
      <weakClassifiers>
        <_>
          <internalNodes>
            0 -1 22 9.5813628286123276e-03</internalNodes>
          <leafValues>
            -9.6624469757080078e-01 6.0000002384185791e-01</leafValues></_>
        <_>
          <internalNodes>
            0 -1 14 9.4394898042082787e-03</internalNodes>
          <leafValues>
            -8.4287232160568237e-01 7.0647835731506348e-01</leafValues></_>
        <_>
          <internalNodes>
            0 -1 2 -1.4937831461429596e-01</internalNodes>
          <leafValues>
            6.9790589809417725e-01 -6.7751747369766235e-01</leafValues></_>
        <_>
          <internalNodes>
            0 -1 18 9.4804950058460236e-03</internalNodes>
          <leafValues>
            -6.2612563371658325e-01 6.4461755752563477e-01</leafValues></_></weakClassifiers></_>
    <!-- stage 4 -->
    <_>
      <maxWeakCount>3</maxWeakCount>
      <stageThreshold>-1.6180634498596191e+00</stageThreshold>
      <weakClassifiers>
        <_>
          <internalNodes>
            0 -1 19 -1.2087053060531616e-01</internalNodes>
          <leafValues>
            1. -9.6353435516357422e-01</leafValues></_>
        <_>
          <internalNodes>
            0 -1 15 -5.0905458629131317e-03</internalNodes>
          <leafValues>
            3.6440750956535339e-01 -8.5126352310180664e-01</leafValues></_>
        <_>
          <internalNodes>
            0 -1 9 -1.3175827916711569e-03</internalNodes>
          <leafValues>
            1.9673439860343933e-01 -9.7263199090957642e-01</leafValues></_></weakClassifiers></_>
    <!-- stage 5 -->
    <_>
      <maxWeakCount>4</maxWeakCount>
      <stageThreshold>-2.1909730434417725e+00</stageThreshold>
      <weakClassifiers>
        <_>
          <internalNodes>
            0 -1 0 3.2412794232368469e-01</internalNodes>
          <leafValues>
            -9.6353435516357422e-01 1.</leafValues></_>
        <_>
          <internalNodes>
            0 -1 23 -7.6355738565325737e-03</internalNodes>
          <leafValues>
            4.2085009813308716e-01 -8.5166501998901367e-01</leafValues></_>
        <_>
          <internalNodes>
            0 -1 20 -1.8551510293036699e-03</internalNodes>
          <leafValues>
            4.6508890390396118e-01 -7.6206040382385254e-01</leafValues></_>
        <_>
          <internalNodes>
            0 -1 25 -4.5442651025950909e-03</internalNodes>
          <leafValues>
            3.8628667593002319e-01 -8.8979774713516235e-01</leafValues></_></weakClassifiers></_>
    <!-- stage 6 -->
    <_>
      <maxWeakCount>3</maxWeakCount>
      <stageThreshold>-1.5538922548294067e+00</stageThreshold>
      <weakClassifiers>
        <_>
          <internalNodes>
            0 -1 7 4.5036226511001587e-02</internalNodes>
          <leafValues>
            -9.6353435516357422e-01 1.</leafValues></_>
        <_>
          <internalNodes>
            0 -1 24 -5.0649219192564487e-03</internalNodes>
          <leafValues>
            4.8216405510902405e-01 -8.5206431150436401e-01</leafValues></_>
        <_>
          <internalNodes>
            0 -1 17 1.8937122076749802e-03</internalNodes>
          <leafValues>
            -8.7761151790618896e-01 2.6170641183853149e-01</leafValues></_></weakClassifiers></_>
    <!-- stage 7 -->
    <_>
      <maxWeakCount>3</maxWeakCount>
      <stageThreshold>-1.6407977342605591e+00</stageThreshold>
      <weakClassifiers>
        <_>
          <internalNodes>
            0 -1 10 -2.2237047553062439e-02</internalNodes>
          <leafValues>
            1. -9.6353435516357422e-01</leafValues></_>
        <_>
          <internalNodes>
            0 -1 25 -5.4283579811453819e-03</internalNodes>
          <leafValues>
            -9.0020519495010376e-01 8.8700704276561737e-02</leafValues></_>
        <_>
          <internalNodes>
            0 -1 16 2.3350822739303112e-03</internalNodes>
          <leafValues>
            -7.6596403121948242e-01 4.2042136192321777e-01</leafValues></_></weakClassifiers></_></stages>
  <features>
    <_>
      <rects>
        <_>
          1 12 29 18 -1.</_>
        <_>
          1 18 29 6 3.</_></rects>
      <tilted>0</tilted></_>
    <_>
      <rects>
        <_>
          1 18 4 3 -1.</_>
        <_>
          1 19 4 1 3.</_></rects>
      <tilted>0</tilted></_>
    <_>
      <rects>
        <_>
          4 0 10 22 -1.</_>
        <_>
          4 11 10 11 2.</_></rects>
      <tilted>0</tilted></_>
    <_>
      <rects>
        <_>
          4 23 14 9 -1.</_>
        <_>
          4 26 14 3 3.</_></rects>
      <tilted>0</tilted></_>
    <_>
      <rects>
        <_>
          6 5 26 4 -1.</_>
        <_>
          19 5 13 4 2.</_></rects>
      <tilted>0</tilted></_>
    <_>
      <rects>
        <_>
          6 14 8 15 -1.</_>
        <_>
          6 19 8 5 3.</_></rects>
      <tilted>0</tilted></_>
    <_>
      <rects>
        <_>
          6 19 10 4 -1.</_>
        <_>
          6 19 5 2 2.</_>
        <_>
          11 21 5 2 2.</_></rects>
      <tilted>0</tilted></_>
    <_>
      <rects>
        <_>
          7 4 24 4 -1.</_>
        <_>
          7 4 12 2 2.</_>
        <_>
          19 6 12 2 2.</_></rects>
      <tilted>0</tilted></_>
    <_>
      <rects>
        <_>
          8 1 24 8 -1.</_>
        <_>
          20 1 12 8 2.</_></rects>
      <tilted>0</tilted></_>
    <_>
      <rects>
        <_>
          9 12 9 20 -1.</_>
        <_>
          12 12 3 20 3.</_></rects>
      <tilted>0</tilted></_>
    <_>
      <rects>
        <_>
          12 28 8 4 -1.</_>
        <_>
          12 28 4 2 2.</_>
        <_>
          16 30 4 2 2.</_></rects>
      <tilted>0</tilted></_>
    <_>
      <rects>
        <_>
          12 29 3 2 -1.</_>
        <_>
          12 30 3 1 2.</_></rects>
      <tilted>0</tilted></_>
    <_>
      <rects>
        <_>
          13 18 4 4 -1.</_>
        <_>
          15 18 2 4 2.</_></rects>
      <tilted>0</tilted></_>
    <_>
      <rects>
        <_>
          13 21 5 2 -1.</_>
        <_>
          13 22 5 1 2.</_></rects>
      <tilted>0</tilted></_>
    <_>
      <rects>
        <_>
          15 21 14 2 -1.</_>
        <_>
          15 21 7 1 2.</_>
        <_>
          22 22 7 1 2.</_></rects>
      <tilted>0</tilted></_>
    <_>
      <rects>
        <_>
          16 25 3 3 -1.</_>
        <_>
          16 26 3 1 3.</_></rects>
      <tilted>0</tilted></_>
    <_>
      <rects>
        <_>
          16 27 4 3 -1.</_>
        <_>
          16 28 4 1 3.</_></rects>
      <tilted>0</tilted></_>
    <_>
      <rects>
        <_>
          17 8 4 8 -1.</_>
        <_>
          17 8 2 4 2.</_>
        <_>
          19 12 2 4 2.</_></rects>
      <tilted>0</tilted></_>
    <_>
      <rects>
        <_>
          17 16 10 6 -1.</_>
        <_>
          17 16 5 3 2.</_>
        <_>
          22 19 5 3 2.</_></rects>
      <tilted>0</tilted></_>
    <_>
      <rects>
        <_>
          17 16 9 16 -1.</_>
        <_>
          17 24 9 8 2.</_></rects>
      <tilted>0</tilted></_>
    <_>
      <rects>
        <_>
          18 16 4 4 -1.</_>
        <_>
          18 16 2 2 2.</_>
        <_>
          20 18 2 2 2.</_></rects>
      <tilted>0</tilted></_>
    <_>
      <rects>
        <_>
          20 11 3 6 -1.</_>
        <_>
          20 14 3 3 2.</_></rects>
      <tilted>0</tilted></_>
    <_>
      <rects>
        <_>
          20 26 5 3 -1.</_>
        <_>
          20 27 5 1 3.</_></rects>
      <tilted>0</tilted></_>
    <_>
      <rects>
        <_>
          24 24 7 2 -1.</_>
        <_>
          24 25 7 1 2.</_></rects>
      <tilted>0</tilted></_>
    <_>
      <rects>
        <_>
          25 17 1 6 -1.</_>
        <_>
          25 19 1 2 3.</_></rects>
      <tilted>0</tilted></_>
    <_>
      <rects>
        <_>
          26 3 6 12 -1.</_>
        <_>
          29 3 3 12 2.</_></rects>
      <tilted>0</tilted></_></features></cascade>
</opencv_storage>
